<?xml version="1.0"?>
<opencv_storage>
<cascade>
  <stageType>BOOST</stageType>
  <featureType>HAAR</featureType>
  <height>20</height>
  <width>20</width>
  <stageParams>
    <boostType>GAB</boostType>
    <minHitRate>9.9500000476837158e-01</minHitRate>
    <maxFalseAlarm>5.0000000000000000e-01</maxFalseAlarm>
    <weightTrimRate>9.4999999999999996e-01</weightTrimRate>
    <maxDepth>1</maxDepth>
    <maxWeakCount>100</maxWeakCount></stageParams>
  <featureParams>
    <maxCatCount>0</maxCatCount>
    <featSize>1</featSize>
    <mode>ALL</mode></featureParams>
  <stageNum>11</stageNum>
  <stages>
    <!-- stage 0 -->
    <_>
      <maxWeakCount>3</maxWeakCount>
      <stageThreshold>-1.2714906930923462e+00</stageThreshold>
      <weakClassifiers>
        <_>
          <internalNodes>
            0 -1 25 3.4717135131359100e-02</internalNodes>
          <leafValues>
            -9.5735609531402588e-01 5.2173912525177002e-01</leafValues></_>
        <_>
          <internalNodes>
            0 -1 12 -3.3990301191806793e-02</internalNodes>
          <leafValues>
            5.9575021266937256e-01 -8.8459867238998413e-01</leafValues></_>
        <_>
          <internalNodes>
            0 -1 11 1.7696283757686615e-02</internalNodes>
          <leafValues>
            -9.7587841749191284e-01 5.7046401500701904e-01</leafValues></_></weakClassifiers></_>
    <!-- stage 1 -->
    <_>
      <maxWeakCount>3</maxWeakCount>
      <stageThreshold>-1.3450235128402710e+00</stageThreshold>
      <weakClassifiers>
        <_>
          <internalNodes>
            0 -1 13 -2.9677109792828560e-02</internalNodes>
          <leafValues>
            6.0000002384185791e-01 -9.4526314735412598e-01</leafValues></_>
        <_>
          <internalNodes>
            0 -1 7 -4.0903128683567047e-02</internalNodes>
          <leafValues>
            8.0263906717300415e-01 -8.1805431842803955e-01</leafValues></_>
        <_>
          <internalNodes>
            0 -1 31 1.8725741654634476e-02</internalNodes>
          <leafValues>
            -9.6702086925506592e-01 4.1829395294189453e-01</leafValues></_></weakClassifiers></_>
    <!-- stage 2 -->
    <_>
      <maxWeakCount>4</maxWeakCount>
      <stageThreshold>-2.0124256610870361e+00</stageThreshold>
      <weakClassifiers>
        <_>
          <internalNodes>
            0 -1 22 -7.4423819780349731e-02</internalNodes>
          <leafValues>
            1. -8.8755017518997192e-01</leafValues></_>
        <_>
          <internalNodes>
            0 -1 10 -4.6853248029947281e-02</internalNodes>
          <leafValues>
            4.2174759507179260e-01 -7.9877966642379761e-01</leafValues></_>
        <_>
          <internalNodes>
            0 -1 18 -1.4971975237131119e-02</internalNodes>
          <leafValues>
            5.8444166183471680e-01 -6.9688838720321655e-01</leafValues></_>
        <_>
          <internalNodes>
            0 -1 20 6.1246310360729694e-04</internalNodes>
          <leafValues>
            -9.6119815111160278e-01 3.7079259753227234e-01</leafValues></_></weakClassifiers></_>
    <!-- stage 3 -->
    <_>
      <maxWeakCount>4</maxWeakCount>
      <stageThreshold>-1.8332895040512085e+00</stageThreshold>
      <weakClassifiers>
        <_>
          <internalNodes>
            0 -1 23 -2.0462986081838608e-02</internalNodes>
          <leafValues>
            9.0476191043853760e-01 -8.9878541231155396e-01</leafValues></_>
        <_>
          <internalNodes>
            0 -1 9 -1.0251094587147236e-02</internalNodes>
          <leafValues>
            4.3215590715408325e-01 -8.2184398174285889e-01</leafValues></_>
        <_>
          <internalNodes>
            0 -1 15 5.2496783435344696e-02</internalNodes>
          <leafValues>
            -6.7178195714950562e-01 7.0919346809387207e-01</leafValues></_>
        <_>
          <internalNodes>
            0 -1 1 1.6739800572395325e-02</internalNodes>
          <leafValues>
            -6.9487798213958740e-01 6.4428788423538208e-01</leafValues></_></weakClassifiers></_>
    <!-- stage 4 -->
    <_>
      <maxWeakCount>4</maxWeakCount>
      <stageThreshold>-1.9748235940933228e+00</stageThreshold>
      <weakClassifiers>
        <_>
          <internalNodes>
            0 -1 30 1.2316817790269852e-01</internalNodes>
          <leafValues>
            -9.1666668653488159e-01 4.2857143282890320e-01</leafValues></_>
        <_>
          <internalNodes>
            0 -1 16 -1.6699494794011116e-02</internalNodes>
          <leafValues>
            2.2482390701770782e-01 -8.2779097557067871e-01</leafValues></_>
        <_>
          <internalNodes>
            0 -1 21 -4.4561838731169701e-03</internalNodes>
          <leafValues>
            2.6404160261154175e-01 -8.5272306203842163e-01</leafValues></_>
        <_>
          <internalNodes>
            0 -1 28 -5.2919045090675354e-02</internalNodes>
          <leafValues>
            7.4301785230636597e-01 -4.9440753459930420e-01</leafValues></_></weakClassifiers></_>
    <!-- stage 5 -->
    <_>
      <maxWeakCount>3</maxWeakCount>
      <stageThreshold>-1.2350498437881470e+00</stageThreshold>
      <weakClassifiers>
        <_>
          <internalNodes>
            0 -1 34 3.2164253294467926e-02</internalNodes>
          <leafValues>
            -8.9494949579238892e-01 8.9999997615814209e-01</leafValues></_>
        <_>
          <internalNodes>
            0 -1 0 2.1638619899749756e-01</internalNodes>
          <leafValues>
            -7.4851018190383911e-01 6.8174540996551514e-01</leafValues></_>
        <_>
          <internalNodes>
            0 -1 3 2.3557442182209343e-04</internalNodes>
          <leafValues>
            -8.7805902957916260e-01 4.0840986371040344e-01</leafValues></_></weakClassifiers></_>
    <!-- stage 6 -->
    <_>
      <maxWeakCount>4</maxWeakCount>
      <stageThreshold>-1.1641352176666260e+00</stageThreshold>
      <weakClassifiers>
        <_>
          <internalNodes>
            0 -1 29 3.8359910249710083e-01</internalNodes>
          <leafValues>
            -9.1020405292510986e-01 8.3999997377395630e-01</leafValues></_>
        <_>
          <internalNodes>
            0 -1 24 6.3195060938596725e-03</internalNodes>
          <leafValues>
            -7.8357821702957153e-01 4.2194485664367676e-01</leafValues></_>
        <_>
          <internalNodes>
            0 -1 17 3.1824025791138411e-03</internalNodes>
          <leafValues>
            -9.4194781780242920e-01 2.5939500331878662e-01</leafValues></_>
        <_>
          <internalNodes>
            0 -1 2 3.2647850457578897e-04</internalNodes>
          <leafValues>
            -1. 2.7025207877159119e-01</leafValues></_></weakClassifiers></_>
    <!-- stage 7 -->
    <_>
      <maxWeakCount>3</maxWeakCount>
      <stageThreshold>-1.2006044387817383e+00</stageThreshold>
      <weakClassifiers>
        <_>
          <internalNodes>
            0 -1 37 -3.4690834581851959e-02</internalNodes>
          <leafValues>
            8.1818181276321411e-01 -8.9858013391494751e-01</leafValues></_>
        <_>
          <internalNodes>
            0 -1 27 -2.3498211055994034e-02</internalNodes>
          <leafValues>
            7.3730885982513428e-01 -6.6756492853164673e-01</leafValues></_>
        <_>
          <internalNodes>
            0 -1 19 3.5448759444989264e-04</internalNodes>
          <leafValues>
            3.6554062366485596e-01 -9.4120413064956665e-01</leafValues></_></weakClassifiers></_>
    <!-- stage 8 -->
    <_>
      <maxWeakCount>3</maxWeakCount>
      <stageThreshold>-1.3141394853591919e+00</stageThreshold>
      <weakClassifiers>
        <_>
          <internalNodes>
            0 -1 33 -2.6626419275999069e-02</internalNodes>
          <leafValues>
            1. -9.0669369697570801e-01</leafValues></_>
        <_>
          <internalNodes>
            0 -1 4 1.1342728137969971e-01</internalNodes>
          <leafValues>
            -8.0652993917465210e-01 7.6915913820266724e-01</leafValues></_>
        <_>
          <internalNodes>
            0 -1 35 -5.1917240489274263e-04</internalNodes>
          <leafValues>
            -9.2850118875503540e-01 3.9908409118652344e-01</leafValues></_></weakClassifiers></_>
    <!-- stage 9 -->
    <_>
      <maxWeakCount>4</maxWeakCount>
      <stageThreshold>-1.9634988307952881e+00</stageThreshold>
      <weakClassifiers>
        <_>
          <internalNodes>
            0 -1 6 -6.7922867834568024e-02</internalNodes>
          <leafValues>
            1. -9.1836732625961304e-01</leafValues></_>
        <_>
          <internalNodes>
            0 -1 8 -4.6732630580663681e-02</internalNodes>
          <leafValues>
            6.6279739141464233e-01 -7.7956736087799072e-01</leafValues></_>
        <_>
          <internalNodes>
            0 -1 14 2.3869117721915245e-03</internalNodes>
          <leafValues>
            -7.3483449220657349e-01 6.1680710315704346e-01</leafValues></_>
        <_>
          <internalNodes>
            0 -1 5 -1.4979171566665173e-02</internalNodes>
          <leafValues>
            -8.8237124681472778e-01 5.0322735309600830e-01</leafValues></_></weakClassifiers></_>
    <!-- stage 10 -->
    <_>
      <maxWeakCount>3</maxWeakCount>
      <stageThreshold>-1.0541466474533081e+00</stageThreshold>
      <weakClassifiers>
        <_>
          <internalNodes>
            0 -1 32 -1.3225318863987923e-02</internalNodes>
          <leafValues>
            1. -9.3018478155136108e-01</leafValues></_>
        <_>
          <internalNodes>
            0 -1 26 9.2404354363679886e-03</internalNodes>
          <leafValues>
            -8.4836822748184204e-01 1.</leafValues></_>
        <_>
          <internalNodes>
            0 -1 36 9.0518668293952942e-03</internalNodes>
          <leafValues>
            -8.3910566568374634e-01 7.2440648078918457e-01</leafValues></_></weakClassifiers></_></stages>
  <features>
    <_>
      <rects>
        <_>
          0 0 14 15 -1.</_>
        <_>
          7 0 7 15 2.</_></rects>
      <tilted>0</tilted></_>
    <_>
      <rects>
        <_>
          0 15 17 3 -1.</_>
        <_>
          0 16 17 1 3.</_></rects>
      <tilted>0</tilted></_>
    <_>
      <rects>
        <_>
          1 12 10 2 -1.</_>
        <_>
          1 12 5 1 2.</_>
        <_>
          6 13 5 1 2.</_></rects>
      <tilted>0</tilted></_>
    <_>
      <rects>
        <_>
          1 15 6 2 -1.</_>
        <_>
          1 15 3 1 2.</_>
        <_>
          4 16 3 1 2.</_></rects>
      <tilted>0</tilted></_>
    <_>
      <rects>
        <_>
          2 5 8 10 -1.</_>
        <_>
          6 5 4 10 2.</_></rects>
      <tilted>0</tilted></_>
    <_>
      <rects>
        <_>
          2 15 14 4 -1.</_>
        <_>
          9 15 7 4 2.</_></rects>
      <tilted>0</tilted></_>
    <_>
      <rects>
        <_>
          2 16 17 4 -1.</_>
        <_>
          2 17 17 2 2.</_></rects>
      <tilted>0</tilted></_>
    <_>
      <rects>
        <_>
          2 17 16 3 -1.</_>
        <_>
          2 18 16 1 3.</_></rects>
      <tilted>0</tilted></_>
    <_>
      <rects>
        <_>
          2 17 18 3 -1.</_>
        <_>
          2 18 18 1 3.</_></rects>
      <tilted>0</tilted></_>
    <_>
      <rects>
        <_>
          3 12 4 3 -1.</_>
        <_>
          4 12 2 3 2.</_></rects>
      <tilted>0</tilted></_>
    <_>
      <rects>
        <_>
          3 16 17 4 -1.</_>
        <_>
          3 17 17 2 2.</_></rects>
      <tilted>0</tilted></_>
    <_>
      <rects>
        <_>
          5 10 6 6 -1.</_>
        <_>
          7 10 2 6 3.</_></rects>
      <tilted>0</tilted></_>
    <_>
      <rects>
        <_>
          5 16 12 4 -1.</_>
        <_>
          5 17 12 2 2.</_></rects>
      <tilted>0</tilted></_>
    <_>
      <rects>
        <_>
          5 16 14 2 -1.</_>
        <_>
          5 17 14 1 2.</_></rects>
      <tilted>0</tilted></_>
    <_>
      <rects>
        <_>
          6 7 2 6 -1.</_>
        <_>
          6 7 1 3 2.</_>
        <_>
          7 10 1 3 2.</_></rects>
      <tilted>0</tilted></_>
    <_>
      <rects>
        <_>
          6 9 6 7 -1.</_>
        <_>
          8 9 2 7 3.</_></rects>
      <tilted>0</tilted></_>
    <_>
      <rects>
        <_>
          6 10 3 3 -1.</_>
        <_>
          7 11 1 3 3.</_></rects>
      <tilted>1</tilted></_>
    <_>
      <rects>
        <_>
          6 15 4 1 -1.</_>
        <_>
          6 15 2 1 2.</_></rects>
      <tilted>1</tilted></_>
    <_>
      <rects>
        <_>
          7 2 6 3 -1.</_>
        <_>
          9 4 2 3 3.</_></rects>
      <tilted>1</tilted></_>
    <_>
      <rects>
        <_>
          7 10 6 2 -1.</_>
        <_>
          7 10 3 1 2.</_>
        <_>
          10 11 3 1 2.</_></rects>
      <tilted>0</tilted></_>
    <_>
      <rects>
        <_>
          7 11 3 4 -1.</_>
        <_>
          6 12 3 2 2.</_></rects>
      <tilted>1</tilted></_>
    <_>
      <rects>
        <_>
          8 1 4 6 -1.</_>
        <_>
          8 3 4 2 3.</_></rects>
      <tilted>0</tilted></_>
    <_>
      <rects>
        <_>
          8 5 4 10 -1.</_>
        <_>
          8 5 2 5 2.</_>
        <_>
          10 10 2 5 2.</_></rects>
      <tilted>0</tilted></_>
    <_>
      <rects>
        <_>
          8 7 3 2 -1.</_>
        <_>
          9 8 1 2 3.</_></rects>
      <tilted>1</tilted></_>
    <_>
      <rects>
        <_>
          8 9 3 2 -1.</_>
        <_>
          9 9 1 2 3.</_></rects>
      <tilted>0</tilted></_>
    <_>
      <rects>
        <_>
          8 11 4 4 -1.</_>
        <_>
          9 12 2 4 2.</_></rects>
      <tilted>1</tilted></_>
    <_>
      <rects>
        <_>
          8 18 8 2 -1.</_>
        <_>
          8 19 8 1 2.</_></rects>
      <tilted>0</tilted></_>
    <_>
      <rects>
        <_>
          9 9 3 7 -1.</_>
        <_>
          10 9 1 7 3.</_></rects>
      <tilted>0</tilted></_>
    <_>
      <rects>
        <_>
          9 10 6 5 -1.</_>
        <_>
          11 10 2 5 3.</_></rects>
      <tilted>0</tilted></_>
    <_>
      <rects>
        <_>
          10 8 9 12 -1.</_>
        <_>
          13 12 3 4 9.</_></rects>
      <tilted>0</tilted></_>
    <_>
      <rects>
        <_>
          10 9 9 7 -1.</_>
        <_>
          13 9 3 7 3.</_></rects>
      <tilted>0</tilted></_>
    <_>
      <rects>
        <_>
          12 12 6 6 -1.</_>
        <_>
          14 14 2 2 9.</_></rects>
      <tilted>0</tilted></_>
    <_>
      <rects>
        <_>
          13 4 6 3 -1.</_>
        <_>
          12 5 6 1 3.</_></rects>
      <tilted>1</tilted></_>
    <_>
      <rects>
        <_>
          14 5 5 3 -1.</_>
        <_>
          13 6 5 1 3.</_></rects>
      <tilted>1</tilted></_>
    <_>
      <rects>
        <_>
          14 7 3 3 -1.</_>
        <_>
          13 8 3 1 3.</_></rects>
      <tilted>1</tilted></_>
    <_>
      <rects>
        <_>
          14 8 6 3 -1.</_>
        <_>
          16 10 2 3 3.</_></rects>
      <tilted>1</tilted></_>
    <_>
      <rects>
        <_>
          14 12 6 4 -1.</_>
        <_>
          14 14 6 2 2.</_></rects>
      <tilted>0</tilted></_>
    <_>
      <rects>
        <_>
          15 9 5 2 -1.</_>
        <_>
          15 9 5 1 2.</_></rects>
      <tilted>1</tilted></_></features></cascade>
</opencv_storage>
