<?xml version="1.0"?>
<opencv_storage>
<cascade>
  <stageType>BOOST</stageType>
  <featureType>HAAR</featureType>
  <height>20</height>
  <width>20</width>
  <stageParams>
    <boostType>GAB</boostType>
    <minHitRate>9.9500000476837158e-01</minHitRate>
    <maxFalseAlarm>5.0000000000000000e-01</maxFalseAlarm>
    <weightTrimRate>9.4999999999999996e-01</weightTrimRate>
    <maxDepth>1</maxDepth>
    <maxWeakCount>100</maxWeakCount></stageParams>
  <featureParams>
    <maxCatCount>0</maxCatCount>
    <featSize>1</featSize>
    <mode>ALL</mode></featureParams>
  <stageNum>14</stageNum>
  <stages>
    <!-- stage 0 -->
    <_>
      <maxWeakCount>4</maxWeakCount>
      <stageThreshold>-1.5298057794570923e+00</stageThreshold>
      <weakClassifiers>
        <_>
          <internalNodes>
            0 -1 40 -6.7246839404106140e-02</internalNodes>
          <leafValues>
            8.2022470235824585e-01 -7.5700932741165161e-01</leafValues></_>
        <_>
          <internalNodes>
            0 -1 54 -4.6284161508083344e-02</internalNodes>
          <leafValues>
            7.4328774213790894e-01 -6.4031547307968140e-01</leafValues></_>
        <_>
          <internalNodes>
            0 -1 1 -7.0338055491447449e-02</internalNodes>
          <leafValues>
            8.3175992965698242e-01 -5.4971671104431152e-01</leafValues></_>
        <_>
          <internalNodes>
            0 -1 66 -1.7100354307331145e-04</internalNodes>
          <leafValues>
            4.1723573207855225e-01 -8.6915373802185059e-01</leafValues></_></weakClassifiers></_>
    <!-- stage 1 -->
    <_>
      <maxWeakCount>5</maxWeakCount>
      <stageThreshold>-1.0583338737487793e+00</stageThreshold>
      <weakClassifiers>
        <_>
          <internalNodes>
            0 -1 49 1.6632115840911865e-01</internalNodes>
          <leafValues>
            -6.9552236795425415e-01 8.3999997377395630e-01</leafValues></_>
        <_>
          <internalNodes>
            0 -1 4 -2.1061707288026810e-02</internalNodes>
          <leafValues>
            5.3405684232711792e-01 -7.0663195848464966e-01</leafValues></_>
        <_>
          <internalNodes>
            0 -1 52 1.3386932201683521e-02</internalNodes>
          <leafValues>
            -5.4101675748825073e-01 6.4477175474166870e-01</leafValues></_>
        <_>
          <internalNodes>
            0 -1 62 -5.7705235667526722e-04</internalNodes>
          <leafValues>
            4.2788693308830261e-01 -7.4891048669815063e-01</leafValues></_>
        <_>
          <internalNodes>
            0 -1 23 -4.7878366895020008e-03</internalNodes>
          <leafValues>
            4.5695036649703979e-01 -6.7987048625946045e-01</leafValues></_></weakClassifiers></_>
    <!-- stage 2 -->
    <_>
      <maxWeakCount>5</maxWeakCount>
      <stageThreshold>-1.1724592447280884e+00</stageThreshold>
      <weakClassifiers>
        <_>
          <internalNodes>
            0 -1 8 6.2795847654342651e-02</internalNodes>
          <leafValues>
            -7.8472220897674561e-01 4.5901638269424438e-01</leafValues></_>
        <_>
          <internalNodes>
            0 -1 31 4.7851521521806717e-02</internalNodes>
          <leafValues>
            -5.7566648721694946e-01 5.9872168302536011e-01</leafValues></_>
        <_>
          <internalNodes>
            0 -1 72 6.3653416000306606e-03</internalNodes>
          <leafValues>
            -4.8771837353706360e-01 6.3768821954727173e-01</leafValues></_>
        <_>
          <internalNodes>
            0 -1 39 -4.9517613661009818e-05</internalNodes>
          <leafValues>
            3.7946236133575439e-01 -6.8553662300109863e-01</leafValues></_>
        <_>
          <internalNodes>
            0 -1 18 1.1517423263285309e-04</internalNodes>
          <leafValues>
            3.4691432118415833e-01 -8.2922118902206421e-01</leafValues></_></weakClassifiers></_>
    <!-- stage 3 -->
    <_>
      <maxWeakCount>6</maxWeakCount>
      <stageThreshold>-1.2913224697113037e+00</stageThreshold>
      <weakClassifiers>
        <_>
          <internalNodes>
            0 -1 47 1.6451865434646606e-01</internalNodes>
          <leafValues>
            -6.2146890163421631e-01 8.9285713434219360e-01</leafValues></_>
        <_>
          <internalNodes>
            0 -1 27 -8.2798771560192108e-02</internalNodes>
          <leafValues>
            7.6137703657150269e-01 -3.9682605862617493e-01</leafValues></_>
        <_>
          <internalNodes>
            0 -1 16 -2.8314592782407999e-04</internalNodes>
          <leafValues>
            -9.2265820503234863e-01 3.2624995708465576e-01</leafValues></_>
        <_>
          <internalNodes>
            0 -1 50 5.5048860609531403e-02</internalNodes>
          <leafValues>
            -3.5980758070945740e-01 7.8276950120925903e-01</leafValues></_>
        <_>
          <internalNodes>
            0 -1 33 -6.2938923947513103e-03</internalNodes>
          <leafValues>
            5.5665892362594604e-01 -4.3925425410270691e-01</leafValues></_>
        <_>
          <internalNodes>
            0 -1 61 -3.3439275284763426e-05</internalNodes>
          <leafValues>
            3.9737313985824585e-01 -7.0542371273040771e-01</leafValues></_></weakClassifiers></_>
    <!-- stage 4 -->
    <_>
      <maxWeakCount>5</maxWeakCount>
      <stageThreshold>-1.0192594528198242e+00</stageThreshold>
      <weakClassifiers>
        <_>
          <internalNodes>
            0 -1 58 -3.3553987741470337e-02</internalNodes>
          <leafValues>
            6.1538463830947876e-01 -6.5662652254104614e-01</leafValues></_>
        <_>
          <internalNodes>
            0 -1 51 2.6066020131111145e-02</internalNodes>
          <leafValues>
            -4.8479813337326050e-01 5.4223203659057617e-01</leafValues></_>
        <_>
          <internalNodes>
            0 -1 0 1.9056968390941620e-02</internalNodes>
          <leafValues>
            -3.8865095376968384e-01 6.2048959732055664e-01</leafValues></_>
        <_>
          <internalNodes>
            0 -1 60 -6.6139432601630688e-04</internalNodes>
          <leafValues>
            -7.4558579921722412e-01 3.6131685972213745e-01</leafValues></_>
        <_>
          <internalNodes>
            0 -1 35 5.1735555753111839e-03</internalNodes>
          <leafValues>
            2.9018637537956238e-01 -8.7753093242645264e-01</leafValues></_></weakClassifiers></_>
    <!-- stage 5 -->
    <_>
      <maxWeakCount>6</maxWeakCount>
      <stageThreshold>-1.2539354562759399e+00</stageThreshold>
      <weakClassifiers>
        <_>
          <internalNodes>
            0 -1 34 -1.4658926054835320e-02</internalNodes>
          <leafValues>
            4.8453608155250549e-01 -6.9329071044921875e-01</leafValues></_>
        <_>
          <internalNodes>
            0 -1 57 -1.6732377931475639e-02</internalNodes>
          <leafValues>
            5.6089788675308228e-01 -5.1756483316421509e-01</leafValues></_>
        <_>
          <internalNodes>
            0 -1 46 -3.8425162434577942e-02</internalNodes>
          <leafValues>
            5.8746057748794556e-01 -4.1915380954742432e-01</leafValues></_>
        <_>
          <internalNodes>
            0 -1 9 -6.7467605695128441e-03</internalNodes>
          <leafValues>
            4.2462453246116638e-01 -6.1102718114852905e-01</leafValues></_>
        <_>
          <internalNodes>
            0 -1 2 6.0204649344086647e-03</internalNodes>
          <leafValues>
            -3.6536768078804016e-01 6.5999734401702881e-01</leafValues></_>
        <_>
          <internalNodes>
            0 -1 68 9.6076447516679764e-04</internalNodes>
          <leafValues>
            3.4585449099540710e-01 -7.7307915687561035e-01</leafValues></_></weakClassifiers></_>
    <!-- stage 6 -->
    <_>
      <maxWeakCount>6</maxWeakCount>
      <stageThreshold>-7.6525807380676270e-01</stageThreshold>
      <weakClassifiers>
        <_>
          <internalNodes>
            0 -1 30 6.5587550401687622e-02</internalNodes>
          <leafValues>
            -6.1016947031021118e-01 8.2142859697341919e-01</leafValues></_>
        <_>
          <internalNodes>
            0 -1 67 -7.8608887270092964e-03</internalNodes>
          <leafValues>
            6.6688203811645508e-01 -4.2564547061920166e-01</leafValues></_>
        <_>
          <internalNodes>
            0 -1 11 2.2663563489913940e-02</internalNodes>
          <leafValues>
            -5.7541465759277344e-01 4.2265573143959045e-01</leafValues></_>
        <_>
          <internalNodes>
            0 -1 43 -7.7651930041611195e-04</internalNodes>
          <leafValues>
            3.2103946805000305e-01 -7.8657078742980957e-01</leafValues></_>
        <_>
          <internalNodes>
            0 -1 36 4.1648233309388161e-04</internalNodes>
          <leafValues>
            3.5253927111625671e-01 -7.2517740726470947e-01</leafValues></_>
        <_>
          <internalNodes>
            0 -1 3 6.2867617234587669e-03</internalNodes>
          <leafValues>
            2.8193268179893494e-01 -7.7293431758880615e-01</leafValues></_></weakClassifiers></_>
    <!-- stage 7 -->
    <_>
      <maxWeakCount>7</maxWeakCount>
      <stageThreshold>-9.4034516811370850e-01</stageThreshold>
      <weakClassifiers>
        <_>
          <internalNodes>
            0 -1 44 9.9859267473220825e-02</internalNodes>
          <leafValues>
            -6.1403506994247437e-01 5.8823531866073608e-01</leafValues></_>
        <_>
          <internalNodes>
            0 -1 17 8.5247028619050980e-03</internalNodes>
          <leafValues>
            -4.5627337694168091e-01 5.2604460716247559e-01</leafValues></_>
        <_>
          <internalNodes>
            0 -1 24 -9.2404112219810486e-03</internalNodes>
          <leafValues>
            5.7095515727996826e-01 -3.8530337810516357e-01</leafValues></_>
        <_>
          <internalNodes>
            0 -1 63 4.7300057485699654e-03</internalNodes>
          <leafValues>
            2.8358927369117737e-01 -8.7546378374099731e-01</leafValues></_>
        <_>
          <internalNodes>
            0 -1 59 -6.8300468847155571e-03</internalNodes>
          <leafValues>
            5.7062160968780518e-01 -4.4596493244171143e-01</leafValues></_>
        <_>
          <internalNodes>
            0 -1 6 -2.4968064390122890e-03</internalNodes>
          <leafValues>
            -9.6979713439941406e-01 2.4010199308395386e-01</leafValues></_>
        <_>
          <internalNodes>
            0 -1 70 1.0969825088977814e-02</internalNodes>
          <leafValues>
            -3.7625166773796082e-01 6.3891869783401489e-01</leafValues></_></weakClassifiers></_>
    <!-- stage 8 -->
    <_>
      <maxWeakCount>5</maxWeakCount>
      <stageThreshold>-1.4242171049118042e+00</stageThreshold>
      <weakClassifiers>
        <_>
          <internalNodes>
            0 -1 53 -4.7789946198463440e-02</internalNodes>
          <leafValues>
            1.4465409517288208e-01 -7.6892429590225220e-01</leafValues></_>
        <_>
          <internalNodes>
            0 -1 15 2.6752418489195406e-04</internalNodes>
          <leafValues>
            1.9684498012065887e-01 -7.6057243347167969e-01</leafValues></_>
        <_>
          <internalNodes>
            0 -1 64 -2.7236652385909110e-05</internalNodes>
          <leafValues>
            3.8715210556983948e-01 -5.6478041410446167e-01</leafValues></_>
        <_>
          <internalNodes>
            0 -1 21 8.2164187915623188e-04</internalNodes>
          <leafValues>
            2.7973973751068115e-01 -8.1059390306472778e-01</leafValues></_>
        <_>
          <internalNodes>
            0 -1 22 -9.8957354202866554e-04</internalNodes>
          <leafValues>
            -5.6161218881607056e-01 3.6530941724777222e-01</leafValues></_></weakClassifiers></_>
    <!-- stage 9 -->
    <_>
      <maxWeakCount>7</maxWeakCount>
      <stageThreshold>-1.1623629331588745e+00</stageThreshold>
      <weakClassifiers>
        <_>
          <internalNodes>
            0 -1 32 1.3511715456843376e-02</internalNodes>
          <leafValues>
            -6.1904764175415039e-01 5.1351350545883179e-01</leafValues></_>
        <_>
          <internalNodes>
            0 -1 7 -9.6110743470489979e-04</internalNodes>
          <leafValues>
            4.6028178930282593e-01 -5.4376995563507080e-01</leafValues></_>
        <_>
          <internalNodes>
            0 -1 55 -3.0397404916584492e-03</internalNodes>
          <leafValues>
            4.6196112036705017e-01 -4.7521799802780151e-01</leafValues></_>
        <_>
          <internalNodes>
            0 -1 73 -3.3949997741729021e-03</internalNodes>
          <leafValues>
            -9.6395897865295410e-01 2.3216004669666290e-01</leafValues></_>
        <_>
          <internalNodes>
            0 -1 13 1.1856731027364731e-01</internalNodes>
          <leafValues>
            1.5058805048465729e-01 -9.7375053167343140e-01</leafValues></_>
        <_>
          <internalNodes>
            0 -1 10 7.9752389865461737e-05</internalNodes>
          <leafValues>
            3.5057735443115234e-01 -6.0336101055145264e-01</leafValues></_>
        <_>
          <internalNodes>
            0 -1 26 -2.0822606980800629e-02</internalNodes>
          <leafValues>
            9.4776952266693115e-01 -3.0776610970497131e-01</leafValues></_></weakClassifiers></_>
    <!-- stage 10 -->
    <_>
      <maxWeakCount>5</maxWeakCount>
      <stageThreshold>-7.4702429771423340e-01</stageThreshold>
      <weakClassifiers>
        <_>
          <internalNodes>
            0 -1 28 6.6969111561775208e-02</internalNodes>
          <leafValues>
            -5.4666668176651001e-01 1.</leafValues></_>
        <_>
          <internalNodes>
            0 -1 74 -2.2267627355176955e-04</internalNodes>
          <leafValues>
            -6.7631161212921143e-01 2.9583904147148132e-01</leafValues></_>
        <_>
          <internalNodes>
            0 -1 73 6.5877207089215517e-04</internalNodes>
          <leafValues>
            2.3027490079402924e-01 -8.6348128318786621e-01</leafValues></_>
        <_>
          <internalNodes>
            0 -1 5 -2.9231137596070766e-03</internalNodes>
          <leafValues>
            -9.4883364439010620e-01 2.4026200175285339e-01</leafValues></_>
        <_>
          <internalNodes>
            0 -1 65 -2.9344893991947174e-03</internalNodes>
          <leafValues>
            -8.2066953182220459e-01 2.2236207127571106e-01</leafValues></_></weakClassifiers></_>
    <!-- stage 11 -->
    <_>
      <maxWeakCount>7</maxWeakCount>
      <stageThreshold>-1.1740566492080688e+00</stageThreshold>
      <weakClassifiers>
        <_>
          <internalNodes>
            0 -1 25 2.5005659088492393e-02</internalNodes>
          <leafValues>
            -5.8011049032211304e-01 8.3333331346511841e-01</leafValues></_>
        <_>
          <internalNodes>
            0 -1 14 -2.2072337567806244e-02</internalNodes>
          <leafValues>
            5.8618426322937012e-01 -4.8095774650573730e-01</leafValues></_>
        <_>
          <internalNodes>
            0 -1 71 3.8254212122410536e-03</internalNodes>
          <leafValues>
            -4.5934283733367920e-01 5.1919531822204590e-01</leafValues></_>
        <_>
          <internalNodes>
            0 -1 38 -1.5733522013761103e-04</internalNodes>
          <leafValues>
            -5.1935768127441406e-01 4.5803180336952209e-01</leafValues></_>
        <_>
          <internalNodes>
            0 -1 56 -1.3515554019249976e-04</internalNodes>
          <leafValues>
            -8.1102150678634644e-01 3.2436892390251160e-01</leafValues></_>
        <_>
          <internalNodes>
            0 -1 42 -3.2137203961610794e-03</internalNodes>
          <leafValues>
            4.3089348077774048e-01 -5.6967473030090332e-01</leafValues></_>
        <_>
          <internalNodes>
            0 -1 45 1.7785064410418272e-03</internalNodes>
          <leafValues>
            2.9048076272010803e-01 -8.1310099363327026e-01</leafValues></_></weakClassifiers></_>
    <!-- stage 12 -->
    <_>
      <maxWeakCount>5</maxWeakCount>
      <stageThreshold>-1.1208152770996094e+00</stageThreshold>
      <weakClassifiers>
        <_>
          <internalNodes>
            0 -1 29 1.4503756165504456e-01</internalNodes>
          <leafValues>
            -5.8904111385345459e-01 1.</leafValues></_>
        <_>
          <internalNodes>
            0 -1 37 2.1204601973295212e-02</internalNodes>
          <leafValues>
            -3.8296335935592651e-01 8.9718949794769287e-01</leafValues></_>
        <_>
          <internalNodes>
            0 -1 41 -1.1564594460651278e-03</internalNodes>
          <leafValues>
            -7.1467310190200806e-01 4.5940700173377991e-01</leafValues></_>
        <_>
          <internalNodes>
            0 -1 69 -1.5636705211363733e-04</internalNodes>
          <leafValues>
            4.4826069474220276e-01 -6.8110662698745728e-01</leafValues></_>
        <_>
          <internalNodes>
            0 -1 19 -1.3218394014984369e-03</internalNodes>
          <leafValues>
            8.3945721387863159e-01 -3.4207218885421753e-01</leafValues></_></weakClassifiers></_>
    <!-- stage 13 -->
    <_>
      <maxWeakCount>3</maxWeakCount>
      <stageThreshold>-7.2905218601226807e-01</stageThreshold>
      <weakClassifiers>
        <_>
          <internalNodes>
            0 -1 48 2.1366897271946073e-04</internalNodes>
          <leafValues>
            -8.5303515195846558e-01 1.</leafValues></_>
        <_>
          <internalNodes>
            0 -1 12 1.1733308434486389e-02</internalNodes>
          <leafValues>
            -7.1196407079696655e-01 1.</leafValues></_>
        <_>
          <internalNodes>
            0 -1 20 -1.1234644334763288e-03</internalNodes>
          <leafValues>
            -7.7865719795227051e-01 8.3594697713851929e-01</leafValues></_></weakClassifiers></_></stages>
  <features>
    <_>
      <rects>
        <_>
          0 6 4 13 -1.</_>
        <_>
          1 6 2 13 2.</_></rects>
      <tilted>0</tilted></_>
    <_>
      <rects>
        <_>
          0 6 9 9 -1.</_>
        <_>
          3 6 3 9 3.</_></rects>
      <tilted>0</tilted></_>
    <_>
      <rects>
        <_>
          0 12 3 4 -1.</_>
        <_>
          1 12 1 4 3.</_></rects>
      <tilted>0</tilted></_>
    <_>
      <rects>
        <_>
          0 12 7 6 -1.</_>
        <_>
          0 14 7 2 3.</_></rects>
      <tilted>0</tilted></_>
    <_>
      <rects>
        <_>
          1 7 6 9 -1.</_>
        <_>
          3 7 2 9 3.</_></rects>
      <tilted>0</tilted></_>
    <_>
      <rects>
        <_>
          1 8 2 4 -1.</_>
        <_>
          1 9 2 2 2.</_></rects>
      <tilted>0</tilted></_>
    <_>
      <rects>
        <_>
          1 10 3 3 -1.</_>
        <_>
          1 11 3 1 3.</_></rects>
      <tilted>0</tilted></_>
    <_>
      <rects>
        <_>
          1 12 4 1 -1.</_>
        <_>
          2 12 2 1 2.</_></rects>
      <tilted>0</tilted></_>
    <_>
      <rects>
        <_>
          2 2 10 10 -1.</_>
        <_>
          2 2 5 5 2.</_>
        <_>
          7 7 5 5 2.</_></rects>
      <tilted>0</tilted></_>
    <_>
      <rects>
        <_>
          2 3 6 7 -1.</_>
        <_>
          4 3 2 7 3.</_></rects>
      <tilted>0</tilted></_>
    <_>
      <rects>
        <_>
          2 7 2 3 -1.</_>
        <_>
          2 8 2 1 3.</_></rects>
      <tilted>0</tilted></_>
    <_>
      <rects>
        <_>
          3 1 6 10 -1.</_>
        <_>
          3 1 3 5 2.</_>
        <_>
          6 6 3 5 2.</_></rects>
      <tilted>0</tilted></_>
    <_>
      <rects>
        <_>
          3 4 14 10 -1.</_>
        <_>
          10 4 7 10 2.</_></rects>
      <tilted>0</tilted></_>
    <_>
      <rects>
        <_>
          3 5 16 10 -1.</_>
        <_>
          11 5 8 10 2.</_></rects>
      <tilted>0</tilted></_>
    <_>
      <rects>
        <_>
          3 7 6 8 -1.</_>
        <_>
          3 7 3 4 2.</_>
        <_>
          6 11 3 4 2.</_></rects>
      <tilted>0</tilted></_>
    <_>
      <rects>
        <_>
          3 8 1 4 -1.</_>
        <_>
          3 10 1 2 2.</_></rects>
      <tilted>0</tilted></_>
    <_>
      <rects>
        <_>
          3 12 1 2 -1.</_>
        <_>
          3 13 1 1 2.</_></rects>
      <tilted>0</tilted></_>
    <_>
      <rects>
        <_>
          3 13 3 3 -1.</_>
        <_>
          2 14 3 1 3.</_></rects>
      <tilted>1</tilted></_>
    <_>
      <rects>
        <_>
          3 14 4 2 -1.</_>
        <_>
          3 14 2 1 2.</_>
        <_>
          5 15 2 1 2.</_></rects>
      <tilted>0</tilted></_>
    <_>
      <rects>
        <_>
          4 0 1 4 -1.</_>
        <_>
          4 1 1 2 2.</_></rects>
      <tilted>0</tilted></_>
    <_>
      <rects>
        <_>
          4 6 2 3 -1.</_>
        <_>
          5 6 1 3 2.</_></rects>
      <tilted>0</tilted></_>
    <_>
      <rects>
        <_>
          4 12 3 1 -1.</_>
        <_>
          5 13 1 1 3.</_></rects>
      <tilted>1</tilted></_>
    <_>
      <rects>
        <_>
          4 13 4 1 -1.</_>
        <_>
          4 13 2 1 2.</_></rects>
      <tilted>1</tilted></_>
    <_>
      <rects>
        <_>
          5 11 6 3 -1.</_>
        <_>
          4 12 6 1 3.</_></rects>
      <tilted>1</tilted></_>
    <_>
      <rects>
        <_>
          5 17 9 3 -1.</_>
        <_>
          5 18 9 1 3.</_></rects>
      <tilted>0</tilted></_>
    <_>
      <rects>
        <_>
          6 1 2 5 -1.</_>
        <_>
          6 1 1 5 2.</_></rects>
      <tilted>1</tilted></_>
    <_>
      <rects>
        <_>
          6 1 2 6 -1.</_>
        <_>
          6 1 1 6 2.</_></rects>
      <tilted>1</tilted></_>
    <_>
      <rects>
        <_>
          6 1 6 6 -1.</_>
        <_>
          8 3 2 6 3.</_></rects>
      <tilted>1</tilted></_>
    <_>
      <rects>
        <_>
          6 3 7 3 -1.</_>
        <_>
          5 4 7 1 3.</_></rects>
      <tilted>1</tilted></_>
    <_>
      <rects>
        <_>
          6 5 10 10 -1.</_>
        <_>
          6 5 5 5 2.</_>
        <_>
          11 10 5 5 2.</_></rects>
      <tilted>0</tilted></_>
    <_>
      <rects>
        <_>
          6 10 6 5 -1.</_>
        <_>
          9 10 3 5 2.</_></rects>
      <tilted>0</tilted></_>
    <_>
      <rects>
        <_>
          6 12 12 4 -1.</_>
        <_>
          9 12 6 4 2.</_></rects>
      <tilted>0</tilted></_>
    <_>
      <rects>
        <_>
          6 14 6 1 -1.</_>
        <_>
          9 14 3 1 2.</_></rects>
      <tilted>0</tilted></_>
    <_>
      <rects>
        <_>
          6 17 8 3 -1.</_>
        <_>
          6 18 8 1 3.</_></rects>
      <tilted>0</tilted></_>
    <_>
      <rects>
        <_>
          7 8 2 12 -1.</_>
        <_>
          7 11 2 6 2.</_></rects>
      <tilted>0</tilted></_>
    <_>
      <rects>
        <_>
          7 13 3 6 -1.</_>
        <_>
          7 16 3 3 2.</_></rects>
      <tilted>0</tilted></_>
    <_>
      <rects>
        <_>
          7 18 2 2 -1.</_>
        <_>
          8 18 1 2 2.</_></rects>
      <tilted>0</tilted></_>
    <_>
      <rects>
        <_>
          8 0 2 7 -1.</_>
        <_>
          8 0 1 7 2.</_></rects>
      <tilted>1</tilted></_>
    <_>
      <rects>
        <_>
          8 2 2 2 -1.</_>
        <_>
          8 2 2 1 2.</_></rects>
      <tilted>1</tilted></_>
    <_>
      <rects>
        <_>
          8 2 4 3 -1.</_>
        <_>
          8 3 4 1 3.</_></rects>
      <tilted>0</tilted></_>
    <_>
      <rects>
        <_>
          8 7 5 8 -1.</_>
        <_>
          6 9 5 4 2.</_></rects>
      <tilted>1</tilted></_>
    <_>
      <rects>
        <_>
          9 4 3 3 -1.</_>
        <_>
          9 5 3 1 3.</_></rects>
      <tilted>0</tilted></_>
    <_>
      <rects>
        <_>
          9 14 2 4 -1.</_>
        <_>
          8 15 2 2 2.</_></rects>
      <tilted>1</tilted></_>
    <_>
      <rects>
        <_>
          10 1 1 6 -1.</_>
        <_>
          10 3 1 2 3.</_></rects>
      <tilted>0</tilted></_>
    <_>
      <rects>
        <_>
          11 5 7 10 -1.</_>
        <_>
          11 10 7 5 2.</_></rects>
      <tilted>0</tilted></_>
    <_>
      <rects>
        <_>
          11 18 3 2 -1.</_>
        <_>
          12 18 1 2 3.</_></rects>
      <tilted>0</tilted></_>
    <_>
      <rects>
        <_>
          12 1 4 12 -1.</_>
        <_>
          12 4 4 6 2.</_></rects>
      <tilted>0</tilted></_>
    <_>
      <rects>
        <_>
          12 2 7 8 -1.</_>
        <_>
          10 4 7 4 2.</_></rects>
      <tilted>1</tilted></_>
    <_>
      <rects>
        <_>
          12 3 4 1 -1.</_>
        <_>
          14 3 2 1 2.</_></rects>
      <tilted>0</tilted></_>
    <_>
      <rects>
        <_>
          13 2 6 9 -1.</_>
        <_>
          10 5 6 3 3.</_></rects>
      <tilted>1</tilted></_>
    <_>
      <rects>
        <_>
          13 10 6 10 -1.</_>
        <_>
          13 10 3 5 2.</_>
        <_>
          16 15 3 5 2.</_></rects>
      <tilted>0</tilted></_>
    <_>
      <rects>
        <_>
          13 11 6 8 -1.</_>
        <_>
          13 11 3 4 2.</_>
        <_>
          16 15 3 4 2.</_></rects>
      <tilted>0</tilted></_>
    <_>
      <rects>
        <_>
          14 0 6 2 -1.</_>
        <_>
          14 0 6 1 2.</_></rects>
      <tilted>1</tilted></_>
    <_>
      <rects>
        <_>
          14 5 6 10 -1.</_>
        <_>
          16 5 2 10 3.</_></rects>
      <tilted>0</tilted></_>
    <_>
      <rects>
        <_>
          14 6 6 10 -1.</_>
        <_>
          16 6 2 10 3.</_></rects>
      <tilted>0</tilted></_>
    <_>
      <rects>
        <_>
          14 8 2 4 -1.</_>
        <_>
          15 8 1 4 2.</_></rects>
      <tilted>0</tilted></_>
    <_>
      <rects>
        <_>
          14 15 2 2 -1.</_>
        <_>
          14 15 1 1 2.</_>
        <_>
          15 16 1 1 2.</_></rects>
      <tilted>0</tilted></_>
    <_>
      <rects>
        <_>
          15 1 5 3 -1.</_>
        <_>
          14 2 5 1 3.</_></rects>
      <tilted>1</tilted></_>
    <_>
      <rects>
        <_>
          15 1 5 4 -1.</_>
        <_>
          14 2 5 2 2.</_></rects>
      <tilted>1</tilted></_>
    <_>
      <rects>
        <_>
          15 2 2 4 -1.</_>
        <_>
          15 4 2 2 2.</_></rects>
      <tilted>0</tilted></_>
    <_>
      <rects>
        <_>
          15 6 3 1 -1.</_>
        <_>
          16 7 1 1 3.</_></rects>
      <tilted>1</tilted></_>
    <_>
      <rects>
        <_>
          15 9 4 1 -1.</_>
        <_>
          16 9 2 1 2.</_></rects>
      <tilted>0</tilted></_>
    <_>
      <rects>
        <_>
          15 14 4 2 -1.</_>
        <_>
          16 14 2 2 2.</_></rects>
      <tilted>0</tilted></_>
    <_>
      <rects>
        <_>
          16 2 2 3 -1.</_>
        <_>
          16 2 1 3 2.</_></rects>
      <tilted>1</tilted></_>
    <_>
      <rects>
        <_>
          16 5 3 6 -1.</_>
        <_>
          16 7 3 2 3.</_></rects>
      <tilted>0</tilted></_>
    <_>
      <rects>
        <_>
          16 5 4 3 -1.</_>
        <_>
          16 6 4 1 3.</_></rects>
      <tilted>0</tilted></_>
    <_>
      <rects>
        <_>
          16 10 3 4 -1.</_>
        <_>
          17 10 1 4 3.</_></rects>
      <tilted>0</tilted></_>
    <_>
      <rects>
        <_>
          17 7 3 6 -1.</_>
        <_>
          18 7 1 6 3.</_></rects>
      <tilted>0</tilted></_>
    <_>
      <rects>
        <_>
          17 7 2 4 -1.</_>
        <_>
          17 9 2 2 2.</_></rects>
      <tilted>0</tilted></_>
    <_>
      <rects>
        <_>
          17 9 2 6 -1.</_>
        <_>
          17 11 2 2 3.</_></rects>
      <tilted>0</tilted></_>
    <_>
      <rects>
        <_>
          18 1 2 12 -1.</_>
        <_>
          18 7 2 6 2.</_></rects>
      <tilted>0</tilted></_>
    <_>
      <rects>
        <_>
          18 3 2 12 -1.</_>
        <_>
          18 3 1 6 2.</_>
        <_>
          19 9 1 6 2.</_></rects>
      <tilted>0</tilted></_>
    <_>
      <rects>
        <_>
          18 6 2 6 -1.</_>
        <_>
          19 6 1 6 2.</_></rects>
      <tilted>0</tilted></_>
    <_>
      <rects>
        <_>
          18 9 2 4 -1.</_>
        <_>
          18 10 2 2 2.</_></rects>
      <tilted>0</tilted></_>
    <_>
      <rects>
        <_>
          19 13 1 2 -1.</_>
        <_>
          19 13 1 1 2.</_></rects>
      <tilted>1</tilted></_></features></cascade>
</opencv_storage>
